digraph Tree {
node [shape=box, style="filled, rounded", color="black", fontname=helvetica] ;
edge [fontname=helvetica] ;
0 [label="1st Goal <= -0.966\ngini = 0.498\nsamples = 90\nvalue = [0.467, 0.533]", fillcolor="#399de520"] ;
1 [label="On-Target <= 1.604\ngini = 0.159\nsamples = 23\nvalue = [0.233, 0.022]", fillcolor="#e58139e7"] ;
0 -> 1 [labeldistance=2.5, labelangle=45, headlabel="True"] ;
2 [label="On-Target <= -0.174\ngini = 0.087\nsamples = 22\nvalue = [0.233, 0.011]", fillcolor="#e58139f3"] ;
1 -> 2 ;
3 [label="gini = 0.0\nsamples = 18\nvalue = [0.2, 0.0]", fillcolor="#e58139ff"] ;
2 -> 3 ;
4 [label="Corners <= -0.894\ngini = 0.375\nsamples = 4\nvalue = [0.033, 0.011]", fillcolor="#e58139aa"] ;
2 -> 4 ;
5 [label="gini = 0.0\nsamples = 1\nvalue = [0.0, 0.011]", fillcolor="#399de5ff"] ;
4 -> 5 ;
6 [label="gini = 0.0\nsamples = 3\nvalue = [0.033, 0.0]", fillcolor="#e58139ff"] ;
4 -> 6 ;
7 [label="gini = -0.0\nsamples = 1\nvalue = [0.0, 0.011]", fillcolor="#399de5ff"] ;
1 -> 7 ;
8 [label="Corners <= -0.894\ngini = 0.43\nsamples = 67\nvalue = [0.233, 0.511]", fillcolor="#399de58b"] ;
0 -> 8 [labeldistance=2.5, labelangle=-45, headlabel="False"] ;
9 [label="Off-Target <= -0.731\ngini = 0.473\nsamples = 13\nvalue = [0.089, 0.056]", fillcolor="#e5813960"] ;
8 -> 9 ;
10 [label="gini = 0.0\nsamples = 3\nvalue = [0.033, 0.0]", fillcolor="#e58139ff"] ;
9 -> 10 ;
11 [label="Off-Target <= 0.121\ngini = 0.5\nsamples = 10\nvalue = [0.056, 0.056]", fillcolor="#e5813900"] ;
9 -> 11 ;
12 [label="On-Target <= -0.618\ngini = 0.444\nsamples = 6\nvalue = [0.022, 0.044]", fillcolor="#399de580"] ;
11 -> 12 ;
13 [label="1st Goal <= 1.984\ngini = 0.444\nsamples = 3\nvalue = [0.022, 0.011]", fillcolor="#e5813980"] ;
12 -> 13 ;
14 [label="gini = -0.0\nsamples = 2\nvalue = [0.022, 0.0]", fillcolor="#e58139ff"] ;
13 -> 14 ;
15 [label="gini = 0.0\nsamples = 1\nvalue = [0.0, 0.011]", fillcolor="#399de5ff"] ;
13 -> 15 ;
16 [label="gini = 0.0\nsamples = 3\nvalue = [0.0, 0.033]", fillcolor="#399de5ff"] ;
12 -> 16 ;
17 [label="On-Target <= -0.618\ngini = 0.375\nsamples = 4\nvalue = [0.033, 0.011]", fillcolor="#e58139aa"] ;
11 -> 17 ;
18 [label="gini = 0.0\nsamples = 1\nvalue = [0.0, 0.011]", fillcolor="#399de5ff"] ;
17 -> 18 ;
19 [label="gini = 0.0\nsamples = 3\nvalue = [0.033, 0.0]", fillcolor="#e58139ff"] ;
17 -> 19 ;
20 [label="1st Goal <= 0.989\ngini = 0.366\nsamples = 54\nvalue = [0.144, 0.456]", fillcolor="#399de5ae"] ;
8 -> 20 ;
21 [label="Corners <= 1.928\ngini = 0.416\nsamples = 44\nvalue = [0.144, 0.344]", fillcolor="#399de594"] ;
20 -> 21 ;
22 [label="1st Goal <= 0.283\ngini = 0.387\nsamples = 42\nvalue = [0.122, 0.344]", fillcolor="#399de5a5"] ;
21 -> 22 ;
23 [label="Goal Scored <= 0.167\ngini = 0.236\nsamples = 22\nvalue = [0.033, 0.211]", fillcolor="#399de5d7"] ;
22 -> 23 ;
24 [label="Off-Target <= -1.156\ngini = 0.444\nsamples = 9\nvalue = [0.033, 0.067]", fillcolor="#399de57f"] ;
23 -> 24 ;
25 [label="gini = 0.0\nsamples = 1\nvalue = [0.011, 0.0]", fillcolor="#e58139ff"] ;
24 -> 25 ;
26 [label="gini = 0.375\nsamples = 8\nvalue = [0.022, 0.067]", fillcolor="#399de5aa"] ;
24 -> 26 ;
27 [label="gini = -0.0\nsamples = 13\nvalue = [0.0, 0.144]", fillcolor="#399de5ff"] ;
23 -> 27 ;
28 [label="Off-Target <= 0.972\ngini = 0.48\nsamples = 20\nvalue = [0.089, 0.133]", fillcolor="#399de555"] ;
22 -> 28 ;
29 [label="Off-Target <= 0.546\ngini = 0.43\nsamples = 16\nvalue = [0.056, 0.122]", fillcolor="#399de58b"] ;
28 -> 29 ;
30 [label="gini = 0.496\nsamples = 11\nvalue = [0.056, 0.067]", fillcolor="#399de52a"] ;
29 -> 30 ;
31 [label="gini = -0.0\nsamples = 5\nvalue = [0.0, 0.056]", fillcolor="#399de5ff"] ;
29 -> 31 ;
32 [label="Corners <= 0.517\ngini = 0.375\nsamples = 4\nvalue = [0.033, 0.011]", fillcolor="#e58139aa"] ;
28 -> 32 ;
33 [label="gini = 0.0\nsamples = 2\nvalue = [0.022, 0.0]", fillcolor="#e58139ff"] ;
32 -> 33 ;
34 [label="gini = 0.5\nsamples = 2\nvalue = [0.011, 0.011]", fillcolor="#e5813900"] ;
32 -> 34 ;
35 [label="gini = 0.0\nsamples = 2\nvalue = [0.022, 0.0]", fillcolor="#e58139ff"] ;
21 -> 35 ;
36 [label="gini = -0.0\nsamples = 10\nvalue = [0.0, 0.111]", fillcolor="#399de5ff"] ;
20 -> 36 ;
}
